%YAML:1.0
---
opencv_ml_svm:
   format: 3
   svmType: C_SVC
   kernel:
      type: LINEAR
   C: 1.
   term_criteria: { iterations:100 }
   var_count: 94
   class_count: 2
   class_labels: !!opencv-matrix
      rows: 2
      cols: 1
      dt: i
      data: [ 1, 2 ]
   sv_total: 1
   support_vectors:
      - [ 2.76392817e-01, 1.60590872e-01, -9.71715748e-01,
          -2.47690693e-01, 7.67239511e-01, -8.83877948e-02,
          -8.87928978e-02, -1.47496775e-01, -4.65704381e-01,
          -8.81832615e-02, -8.87105837e-02, -3.81887197e-01,
          -2.28179321e-02, -8.87105837e-02, -8.87105837e-02,
          -3.03533822e-01, -2.84148991e-01, -8.71588215e-02,
          -8.87105837e-02, 1.09366691e+00, 1.10797815e-01,
          8.05260897e-01, 3.18411589e-01, 1.40453009e-02, 3.39094065e-02,
          -1.70130446e-03, 1.60228629e-02, 9.33680162e-02,
          -1.20506831e-01, 2.98267882e-03, -1.27665907e-01,
          -1.05920076e-01, -1.99726403e-01, -4.67885509e-02,
          -5.69883399e-02, 1.16614372e-01, -1.81568086e-01,
          1.11388676e-02, -1.40443817e-01, -9.13119167e-02,
          -1.73956811e-01, -4.77095023e-02, -9.33401212e-02,
          9.93687063e-02, -1.38179004e-01, -3.51972668e-03,
          -6.51768222e-02, 1.51045239e-02, -4.54517603e-02,
          1.91228408e-02, -2.09113602e-02, 2.14571636e-02,
          1.36813661e-02, -1.89734083e-02, 2.78325323e-02,
          1.60227373e-01, 1.83428556e-01, 7.33306482e-02, 5.35256490e-02,
          -2.92997714e-02, 1.34965986e-01, -2.97177415e-02,
          7.19984248e-02, 6.58851266e-02, 5.42454310e-02, 6.84300289e-02,
          5.13305478e-02, 3.60278748e-02, 1.75580699e-02,
          -3.75928655e-02, 7.62785971e-02, 4.10783812e-02,
          4.34779935e-02, 4.27377447e-02, 4.20869701e-02, 8.31382573e-02,
          -8.64285827e-02, -3.62085998e-02, 2.72880290e-02,
          3.72301564e-02, 6.53642192e-02, 3.12788896e-02, 5.75445071e-02,
          8.59080330e-02, -1.05717055e-01, -1.70471445e-02,
          -6.71626106e-02, -5.03171468e-05, -3.46717169e-03,
          7.03555299e-04, 7.03539699e-04, 7.03502912e-04, 7.03502912e-04,
          7.03502912e-04 ]
   uncompressed_sv_total: 9
   uncompressed_support_vectors:
      - [ 3.33539915e+00, 1.84740230e-01, 2.06903607e-01,
          -4.89134490e-01, -1.13222018e-01, -5.49101710e-01,
          -5.52561402e-01, -5.32380104e-01, -4.94287908e-01,
          -5.51804602e-01, -5.52561402e-01, -5.21100223e-01,
          2.70084190e+00, -5.52561402e-01, -5.52561402e-01,
          -4.86287475e-01, 7.36878574e-01, -5.52561402e-01,
          -5.52561402e-01, 3.76930922e-01, -1.05005354e-01,
          -2.55319893e-01, -1.28682330e-01, -8.75823677e-01,
          -5.88593483e-01, -8.92898321e-01, -6.31690204e-01,
          1.91688120e+00, -6.02530777e-01, 1.51995480e+00,
          -2.88101137e-01, -7.60014594e-01, -5.43124199e-01,
          -8.55006576e-01, -6.06282532e-01, 1.91062701e+00,
          -5.80780745e-01, 1.51728654e+00, -2.76322424e-01,
          -7.30672896e-01, -5.16828537e-01, -8.10930669e-01,
          -5.71663022e-01, 1.91025496e+00, -5.80509782e-01,
          1.49899137e+00, -2.20976517e-01, -6.77099168e-01,
          -4.20701474e-01, -7.83131540e-01, -5.08361280e-01,
          1.86106217e+00, -4.86237854e-01, 1.49140859e+00,
          -1.78373739e-01, -6.97854221e-01, -3.19001287e-01,
          -7.94391274e-01, -4.88712013e-01, 1.82706118e+00,
          -4.14472908e-01, 1.48731220e+00, -1.66641369e-01,
          -6.96332574e-01, -4.49461639e-01, -7.89584935e-01,
          -5.18680274e-01, 1.87761009e+00, -5.14400244e-01,
          1.48980319e+00, -1.85135216e-01, -7.28860259e-01,
          -5.15473187e-01, -8.15920174e-01, -5.81688941e-01,
          1.91770744e+00, -5.97162843e-01, 1.49925148e+00,
          -2.37007380e-01, -7.57854044e-01, -5.42864799e-01,
          -8.55388463e-01, -6.12033248e-01, 1.92057860e+00,
          -6.11099601e-01, 1.51700294e+00, -2.86117405e-01,
          2.44610739e+00, -2.80802310e-01, -4.33061004e-01,
          -4.33061004e-01, -4.33061004e-01, -4.33061004e-01,
          -4.33061004e-01 ]
      - [ 4.65034437e+00, 1.78611442e-01, -2.14474455e-01,
          -2.64308512e-01, -2.58112222e-01, -2.64489770e-01,
          -2.64489770e-01, -2.64489770e-01, -2.64489770e-01,
          -2.64489770e-01, -2.64489770e-01, -2.64489770e-01,
          -2.64489770e-01, -2.64489770e-01, -2.64489770e-01,
          -2.57535428e-01, -2.64489770e-01, -2.61572897e-01,
          -2.64489770e-01, -1.02891646e-01, -2.60534704e-01,
          2.13053629e-01, -2.48702407e-01, -7.69794464e-01,
          -4.78607386e-01, -7.92700708e-01, -5.44995189e-01,
          1.77834964e+00, -5.04565895e-01, 1.64412272e+00,
          -3.19766968e-01, -6.63471758e-01, -4.82990324e-01,
          -7.60207593e-01, -5.45811653e-01, 1.77915800e+00,
          -5.05928040e-01, 1.64424276e+00, -3.21083695e-01,
          -6.60334706e-01, -5.22579074e-01, -7.47820616e-01,
          -5.77521980e-01, 1.79124749e+00, -5.49751520e-01,
          1.64045703e+00, -3.17946076e-01, -6.77347541e-01,
          -5.32779038e-01, -7.71315753e-01, -5.91326177e-01,
          1.79207635e+00, -5.57668030e-01, 1.64699984e+00,
          -3.34276885e-01, -7.84629285e-01, -5.25109351e-01,
          -8.06541026e-01, -5.96654236e-01, 1.79567790e+00,
          -5.68969488e-01, 1.65237129e+00, -3.48749697e-01,
          -6.78047299e-01, -5.29883265e-01, -7.73962557e-01,
          -5.98918140e-01, 1.79926479e+00, -5.84469736e-01,
          1.64855421e+00, -3.43330085e-01, -6.66945696e-01,
          -5.35833120e-01, -7.53431499e-01, -5.95995426e-01,
          1.80042839e+00, -5.89082897e-01, 1.64106214e+00,
          -3.24852079e-01, -6.71570480e-01, -4.99669552e-01,
          -7.65479982e-01, -5.61365724e-01, 1.78310704e+00,
          -5.22992551e-01, 1.64370203e+00, -3.23747009e-01,
          2.44915700e+00, -3.68379027e-01, -4.16155308e-01,
          -4.16155577e-01, -4.16155666e-01, -4.16155666e-01,
          -4.16155666e-01 ]
      - [ 3.29620886e+00, -4.10821028e-02, 7.07645476e-01,
          -5.90006948e-01, 6.01874352e-01, -6.13911986e-01,
          -6.13911986e-01, -6.13563240e-01, -5.46264946e-01,
          -6.13911986e-01, -6.13911986e-01, -6.13292038e-01,
          2.26654863e+00, -6.13911986e-01, -6.13911986e-01,
          -5.37586331e-01, 8.96134973e-01, -6.13911986e-01,
          -6.13911986e-01, 2.61663407e-01, 5.21751821e-01,
          -2.04465494e-01, -4.94270533e-01, -8.79109919e-01,
          -6.18501246e-01, -8.93778324e-01, -6.53620422e-01,
          1.91755998e+00, -6.13736451e-01, 1.53235543e+00,
          -2.78696775e-01, -7.70359695e-01, -5.89021266e-01,
          -8.56381416e-01, -6.32083297e-01, 1.90964365e+00,
          -5.89097440e-01, 1.52053547e+00, -2.55558103e-01,
          -7.23367035e-01, -5.14292061e-01, -8.08205605e-01,
          -5.79609871e-01, 1.89794874e+00, -5.47182381e-01,
          1.49829316e+00, -2.02552006e-01, -6.68741345e-01,
          -4.11967754e-01, -7.80550241e-01, -5.16011417e-01,
          1.84522367e+00, -4.45720792e-01, 1.48634529e+00,
          -1.58503473e-01, -7.06554532e-01, -3.44253123e-01,
          -7.93785691e-01, -5.02227724e-01, 1.82029295e+00,
          -3.97287548e-01, 1.48505807e+00, -1.50060624e-01,
          -6.85613811e-01, -4.40269798e-01, -7.87339866e-01,
          -5.30727625e-01, 1.86960685e+00, -4.93360370e-01,
          1.49708021e+00, -1.77596360e-01, -7.20682025e-01,
          -5.18140316e-01, -8.09407592e-01, -5.87576389e-01,
          1.91442013e+00, -5.98888636e-01, 1.50875950e+00,
          -2.24335745e-01, -7.59675980e-01, -5.64135015e-01,
          -8.53559136e-01, -6.31635368e-01, 1.91865778e+00,
          -6.13902211e-01, 1.52663136e+00, -2.70748734e-01,
          2.44948983e+00, -4.08248305e-01, -4.08248305e-01,
          -4.08248305e-01, -4.08248305e-01, -4.08248305e-01,
          -4.08248305e-01 ]
      - [ 4.66493797e+00, -1.04885630e-01, -2.19754994e-01,
          -2.52887607e-01, -2.46608838e-01, -2.53113002e-01,
          -2.53113002e-01, -2.53113002e-01, -2.50907391e-01,
          -2.53113002e-01, -2.53113002e-01, -2.53113002e-01,
          -2.50987887e-01, -2.53113002e-01, -2.53113002e-01,
          -2.53113002e-01, -2.53113002e-01, -2.53113002e-01,
          -2.53113002e-01, -1.56097889e-01, -2.43372843e-01,
          2.37581253e-01, -1.39660373e-01, -8.06438565e-01,
          -4.52897727e-01, -8.46878886e-01, -5.66111207e-01,
          1.78026319e+00, -5.60239434e-01, 1.65883625e+00,
          -3.76760423e-01, -6.91361785e-01, -4.49467391e-01,
          -8.12602520e-01, -5.68936050e-01, 1.78104460e+00,
          -5.61204493e-01, 1.65968549e+00, -3.81405562e-01,
          -6.77128255e-01, -4.50341552e-01, -7.92399943e-01,
          -5.72571695e-01, 1.78784847e+00, -5.83440244e-01,
          1.65421653e+00, -3.72559249e-01, -6.79206014e-01,
          -4.22600031e-01, -8.06003809e-01, -5.51680982e-01,
          1.78117025e+00, -5.65822423e-01, 1.65447557e+00,
          -3.71796578e-01, -7.89047956e-01, -4.13300037e-01,
          -8.37013245e-01, -5.41549981e-01, 1.77865982e+00,
          -5.55698216e-01, 1.65090752e+00, -3.63810629e-01,
          -6.69625044e-01, -4.00708884e-01, -8.00616145e-01,
          -5.38847625e-01, 1.77299571e+00, -5.40132046e-01,
          1.64581299e+00, -3.52109998e-01, -6.72906101e-01,
          -4.41720039e-01, -7.85330117e-01, -5.53924024e-01,
          1.77497804e+00, -5.45256257e-01, 1.64391339e+00,
          -3.47734869e-01, -6.84452653e-01, -4.28108186e-01,
          -8.08691025e-01, -5.54134548e-01, 1.77377999e+00,
          -5.42090654e-01, 1.65313756e+00, -3.65062326e-01,
          2.44936013e+00, -3.83378088e-01, -4.13196385e-01,
          -4.13196385e-01, -4.13196385e-01, -4.13196385e-01,
          -4.13196385e-01 ]
      - [ 3.12355852e+00, -2.36635700e-01, 4.69971955e-01,
          -4.76032823e-01, 4.85927192e-03, -5.27262688e-01,
          -5.30211866e-01, -5.11544108e-01, -4.86978084e-01,
          -5.30120611e-01, -5.30211866e-01, -4.34562445e-01,
          2.96384907e+00, -5.30211866e-01, -5.30211866e-01,
          -4.19208676e-01, 3.35375667e-01, -5.30211866e-01,
          -5.30211866e-01, 7.16392279e-01, -2.96348155e-01,
          -2.75126517e-01, -2.38915950e-01, -8.46287608e-01,
          -5.66132009e-01, -8.66235793e-01, -6.26717985e-01,
          1.85434186e+00, -6.17211759e-01, 1.60414624e+00,
          -3.70928288e-01, -7.35347629e-01, -5.46492815e-01,
          -8.29492629e-01, -6.05117083e-01, 1.85061193e+00,
          -6.04129553e-01, 1.59772646e+00, -3.51101279e-01,
          -6.97702765e-01, -4.99037534e-01, -7.82219231e-01,
          -5.54707766e-01, 1.84485745e+00, -5.83640337e-01,
          1.57689714e+00, -2.96803713e-01, -6.42204702e-01,
          -3.90861005e-01, -7.64625609e-01, -4.97301221e-01,
          1.80850363e+00, -4.99119431e-01, 1.56748009e+00,
          -2.65259594e-01, -7.25957632e-01, -3.73516709e-01,
          -7.83109605e-01, -4.79212195e-01, 1.80535269e+00,
          -4.87741947e-01, 1.56426275e+00, -2.61122227e-01,
          -6.71751678e-01, -4.26867068e-01, -7.68124104e-01,
          -4.90984678e-01, 1.83141935e+00, -5.50879896e-01,
          1.57151783e+00, -2.83355176e-01, -6.86924815e-01,
          -4.68625546e-01, -7.79480875e-01, -5.37431538e-01,
          1.84975588e+00, -5.96430957e-01, 1.58463740e+00,
          -3.32227916e-01, -7.20543206e-01, -5.09074867e-01,
          -8.21628690e-01, -5.88151693e-01, 1.85563111e+00,
          -6.17973626e-01, 1.60300183e+00, -3.70349616e-01,
          2.44611216e+00, -2.80895293e-01, -4.33043212e-01,
          -4.33043420e-01, -4.33043420e-01, -4.33043420e-01,
          -4.33043420e-01 ]
      - [ 4.00727558e+00, -3.70815933e-01, 9.22059655e-01,
          -3.38230759e-01, -1.16536729e-01, -4.76645827e-01,
          -4.78135288e-01, -4.26788181e-01, -4.45419490e-01,
          -4.78135288e-01, -4.78135288e-01, -2.97780246e-01,
          1.60007656e+00, -4.78135288e-01, -4.78135288e-01,
          -2.76248425e-01, 6.47372246e-01, -4.78135288e-01,
          -4.78135288e-01, -2.12018818e-01, 5.32353371e-02,
          -4.74320173e-01, -4.48267728e-01, -8.44728947e-01,
          -5.84419429e-01, -8.54346752e-01, -6.21856809e-01,
          1.85413599e+00, -5.67971885e-01, 1.57100093e+00,
          -2.63136029e-01, -6.77939415e-01, -4.46326494e-01,
          -7.97260523e-01, -5.73450387e-01, 1.83646524e+00,
          -5.17386675e-01, 1.56118488e+00, -2.41572618e-01,
          -6.54246807e-01, -4.29304093e-01, -7.60023952e-01,
          -5.31912982e-01, 1.84241760e+00, -5.24639368e-01,
          1.55174160e+00, -2.34312922e-01, -6.70935988e-01,
          -4.18607444e-01, -7.80387521e-01, -5.23870230e-01,
          1.84002316e+00, -5.14298737e-01, 1.55259871e+00,
          -2.49358952e-01, -8.03053260e-01, -4.80981231e-01,
          -8.25679719e-01, -5.45601964e-01, 1.84631813e+00,
          -5.32668710e-01, 1.55659461e+00, -2.66802162e-01,
          -7.11875200e-01, -4.84472662e-01, -8.09169233e-01,
          -5.60814798e-01, 1.85335767e+00, -5.50742924e-01,
          1.56573963e+00, -2.86683202e-01, -7.19406962e-01,
          -5.30876160e-01, -8.06523383e-01, -5.95195472e-01,
          1.86389220e+00, -5.80134094e-01, 1.57231128e+00,
          -2.98548788e-01, -7.44754732e-01, -5.62203765e-01,
          -8.34204912e-01, -6.24819577e-01, 1.86221838e+00,
          -5.80058634e-01, 1.57721937e+00, -2.89652854e-01,
          2.44948983e+00, -4.08248305e-01, -4.08248305e-01,
          -4.08248305e-01, -4.08248305e-01, -4.08248305e-01,
          -4.08248305e-01 ]
      - [ 4.00963545e+00, -4.27461386e-01, 9.27455783e-01,
          -3.75207424e-01, -2.30074808e-01, -4.62686747e-01,
          -4.63802963e-01, -4.36832339e-01, -4.40336674e-01,
          -4.63880837e-01, -4.63880837e-01, -3.41980845e-01,
          1.51808405e+00, -4.63880837e-01, -4.63880837e-01,
          -3.36607486e-01, 7.72588849e-01, -4.63880837e-01,
          -4.63880837e-01, -1.70812100e-01, 1.37078792e-01,
          -4.60194767e-01, -4.35560375e-01, -8.31729293e-01,
          -5.82078993e-01, -8.37817013e-01, -6.12217665e-01,
          1.83715391e+00, -5.84786892e-01, 1.59498751e+00,
          -2.97301859e-01, -6.60568833e-01, -4.35277969e-01,
          -7.79806793e-01, -5.59185863e-01, 1.82002115e+00,
          -5.31426430e-01, 1.58530211e+00, -2.75622755e-01,
          -6.40127599e-01, -4.21748668e-01, -7.42451608e-01,
          -5.16752005e-01, 1.82714748e+00, -5.38990378e-01,
          1.57658446e+00, -2.69334733e-01, -6.56352937e-01,
          -4.10667747e-01, -7.64384449e-01, -5.13054848e-01,
          1.82754445e+00, -5.38058937e-01, 1.57731938e+00,
          -2.85234660e-01, -7.91020215e-01, -4.81029272e-01,
          -8.10639441e-01, -5.38836479e-01, 1.83261740e+00,
          -5.56981325e-01, 1.58186078e+00, -3.04125339e-01,
          -6.97690129e-01, -4.83211577e-01, -7.93383598e-01,
          -5.55392146e-01, 1.83840823e+00, -5.73124290e-01,
          1.59144735e+00, -3.25208247e-01, -7.02212930e-01,
          -5.25532901e-01, -7.89521217e-01, -5.88764071e-01,
          1.84650719e+00, -5.96195698e-01, 1.59820735e+00,
          -3.37967485e-01, -7.28705823e-01, -5.58996856e-01,
          -8.17403138e-01, -6.17700160e-01, 1.84516788e+00,
          -5.96975982e-01, 1.60219049e+00, -3.26869875e-01,
          2.44744349e+00, -3.09207410e-01, -4.27647203e-01,
          -4.27647233e-01, -4.27647233e-01, -4.27647233e-01,
          -4.27647233e-01 ]
      - [ 8.01048934e-01, 2.15371943e+00, 1.80550918e-01,
          -4.65789288e-01, -1.76114395e-01, -4.71176058e-01,
          -4.71152335e-01, -4.71104860e-01, 7.27508962e-01,
          -4.71176058e-01, -4.71176058e-01, -4.71081138e-01,
          3.71108675e+00, -4.71176058e-01, -4.71176058e-01,
          -4.50317174e-01, -1.08696826e-01, -4.71176058e-01,
          -4.71176058e-01, -3.27750564e-01, -4.00104016e-01,
          -4.70796376e-01, -4.62775558e-01, -8.29833627e-01,
          -5.25585115e-01, -8.52600515e-01, -5.79768777e-01,
          1.91857970e+00, -6.07835948e-01, 1.49023306e+00,
          -2.75152743e-01, -7.03778684e-01, -4.79701608e-01,
          -8.06138039e-01, -5.39951921e-01, 1.91521370e+00,
          -6.01940811e-01, 1.48216653e+00, -2.61937797e-01,
          -6.69616222e-01, -4.38101351e-01, -7.66035378e-01,
          -5.07684469e-01, 1.92360044e+00, -6.31482363e-01,
          1.46847796e+00, -2.30252787e-01, -6.49943113e-01,
          -4.12856311e-01, -7.57045209e-01, -4.94775862e-01,
          1.90835261e+00, -6.08753145e-01, 1.47210801e+00,
          -2.17170224e-01, -6.81229055e-01, -3.46808434e-01,
          -7.87610650e-01, -5.26651084e-01, 1.89259279e+00,
          -5.91361582e-01, 1.47769570e+00, -2.19239712e-01,
          -6.81790173e-01, -4.92693692e-01, -7.83765078e-01,
          -5.68363786e-01, 1.92351735e+00, -6.76765203e-01,
          1.48356891e+00, -2.34840393e-01, -6.97389007e-01,
          -5.19964635e-01, -7.96489596e-01, -6.04947269e-01,
          1.94041300e+00, -7.15262771e-01, 1.48340237e+00,
          -2.53827184e-01, -7.15716004e-01, -5.20098031e-01,
          -8.24441195e-01, -5.96988678e-01, 1.92427707e+00,
          -6.34897351e-01, 1.49229646e+00, -2.77413011e-01,
          2.44615006e+00, -2.81611800e-01, -4.32907313e-01,
          -4.32907701e-01, -4.32907730e-01, -4.32907730e-01,
          -4.32907730e-01 ]
      - [ 3.23064756e+00, -4.50032502e-01, -4.98357654e-01,
          -3.78793091e-01, -1.16681315e-01, -5.05539715e-01,
          -5.05539715e-01, -5.00478089e-01, -4.74759400e-01,
          -5.05573928e-01, -5.05573928e-01, -1.02795959e-01,
          1.38030386e+00, -5.05573928e-01, -5.05573928e-01,
          -1.86860517e-01, 2.47967529e+00, -5.05573928e-01,
          -5.05573928e-01, -2.10766584e-01, 8.83372247e-01,
          -5.04992545e-01, -5.04958332e-01, -1.27106726e+00,
          -8.88694763e-01, -1.29752553e+00, -9.67729509e-01,
          1.49384809e+00, 4.33797181e-01, 1.36980987e+00, 4.83109772e-01,
          -1.13026178e+00, -8.19444895e-01, -1.24931526e+00,
          -9.29490387e-01, 1.48374963e+00, 4.38856900e-01,
          1.35968137e+00, 4.85586941e-01, -1.08295643e+00,
          -7.45512664e-01, -1.17886400e+00, -8.20032120e-01,
          1.44326544e+00, 4.61994886e-01, 1.33221769e+00, 4.94214594e-01,
          -1.00675106e+00, -5.52232623e-01, -1.12033212e+00,
          -6.38965189e-01, 1.39503741e+00, 4.83223647e-01,
          1.31033540e+00, 4.96154398e-01, -1.05003858e+00,
          -4.17416215e-01, -1.11146307e+00, -5.52570283e-01,
          1.39390016e+00, 4.75902617e-01, 1.29971433e+00, 4.98268396e-01,
          -9.72343266e-01, -4.73681927e-01, -1.09907436e+00,
          -5.88132381e-01, 1.39206433e+00, 4.80717063e-01,
          1.30528593e+00, 4.97027785e-01, -1.07317221e+00,
          -7.16851652e-01, -1.15579808e+00, -7.55599558e-01,
          1.42399096e+00, 4.72763270e-01, 1.32557058e+00, 4.93768483e-01,
          -1.13378489e+00, -8.26016605e-01, -1.24460578e+00,
          -9.13784087e-01, 1.46011305e+00, 4.54954892e-01,
          1.35658216e+00, 4.88001406e-01, 2.44948983e+00,
          -4.08248305e-01, -4.08248305e-01, -4.08248305e-01,
          -4.08248305e-01, -4.08248305e-01, -4.08248305e-01 ]
   decision_functions:
      -
         sv_count: 1
         rho: 1.6978812503502554e+00
         alpha: [ 1. ]
         index: [ 0 ]
